digraph Tree {
node [shape=box, style="filled, rounded", color="black", fontname="helvetica"] ;
edge [fontname="helvetica"] ;
0 [label="petal length (cm) <= 4.75\ngini = 0.66\nsamples = 99\nvalue = [41, 54, 55]\nclass = virginica", fillcolor="#fefdff"] ;
1 [label="petal width (cm) <= 0.75\ngini = 0.5\nsamples = 61\nvalue = [41, 49, 0]\nclass = versicolor", fillcolor="#dffbea"] ;
0 -> 1 [labeldistance=2.5, labelangle=45, headlabel="True"] ;
2 [label="gini = 0.0\nsamples = 27\nvalue = [41, 0, 0]\nclass = setosa", fillcolor="#e58139"] ;
1 -> 2 ;
3 [label="gini = 0.0\nsamples = 34\nvalue = [0, 49, 0]\nclass = versicolor", fillcolor="#39e581"] ;
1 -> 3 ;
4 [label="petal width (cm) <= 1.55\ngini = 0.15\nsamples = 38\nvalue = [0, 5, 55]\nclass = virginica", fillcolor="#8c4be7"] ;
0 -> 4 [labeldistance=2.5, labelangle=-45, headlabel="False"] ;
5 [label="sepal length (cm) <= 6.2\ngini = 0.47\nsamples = 5\nvalue = [0, 3, 5]\nclass = virginica", fillcolor="#cdb0f5"] ;
4 -> 5 ;
6 [label="gini = 0.0\nsamples = 2\nvalue = [0, 0, 4]\nclass = virginica", fillcolor="#8139e5"] ;
5 -> 6 ;
7 [label="sepal width (cm) <= 2.65\ngini = 0.38\nsamples = 3\nvalue = [0, 3, 1]\nclass = versicolor", fillcolor="#7beeab"] ;
5 -> 7 ;
8 [label="gini = 0.0\nsamples = 1\nvalue = [0, 2, 0]\nclass = versicolor", fillcolor="#39e581"] ;
7 -> 8 ;
9 [label="petal length (cm) <= 4.95\ngini = 0.5\nsamples = 2\nvalue = [0, 1, 1]\nclass = versicolor", fillcolor="#ffffff"] ;
7 -> 9 ;
10 [label="gini = 0.0\nsamples = 1\nvalue = [0, 1, 0]\nclass = versicolor", fillcolor="#39e581"] ;
9 -> 10 ;
11 [label="gini = 0.0\nsamples = 1\nvalue = [0, 0, 1]\nclass = virginica", fillcolor="#8139e5"] ;
9 -> 11 ;
12 [label="sepal length (cm) <= 5.95\ngini = 0.07\nsamples = 33\nvalue = [0, 2, 50]\nclass = virginica", fillcolor="#8641e6"] ;
4 -> 12 ;
13 [label="petal length (cm) <= 4.85\ngini = 0.35\nsamples = 5\nvalue = [0, 2, 7]\nclass = virginica", fillcolor="#a572ec"] ;
12 -> 13 ;
14 [label="gini = 0.0\nsamples = 1\nvalue = [0, 2, 0]\nclass = versicolor", fillcolor="#39e581"] ;
13 -> 14 ;
15 [label="gini = 0.0\nsamples = 4\nvalue = [0, 0, 7]\nclass = virginica", fillcolor="#8139e5"] ;
13 -> 15 ;
16 [label="gini = 0.0\nsamples = 28\nvalue = [0, 0, 43]\nclass = virginica", fillcolor="#8139e5"] ;
12 -> 16 ;
}